window.bestCarData = JSON.stringify({"levels":[{"inputs":[0,0,0,0,0],"outputs":[1,1,0,1,0,0],"biases":[-0.07314782215775678,-0.2920485212130772,0.04245556212228401,-0.48321438459633026,0.3263802322194796,0.05019213676374181],"weights":[[-0.003946484274201564,0.21744777912695767,-0.3861609187663073,0.543286446163111,0.012469888452990296,0.18627916381494905],[-0.15180848614501813,-0.1977099526356736,0.03648466754026986,0.2273928801783926,0.26592010953960515,0.08688673744738747],[-0.2879741658581906,-0.2651104492881896,0.09244720929597353,-0.3931744558639699,-0.08081237802584135,-0.07940349776692579],[0.20928537498042774,-0.363560164110607,0.42901685436231746,-0.3579723293319082,0.2478304114838098,0.13590738635840216],[-0.010433047053168665,-0.24023271285316702,0.28754280427101947,0.3752433395344875,0.30198397325924065,-0.04190901683518819]]},{"inputs":[1,1,0,1,0,0],"outputs":[1,0,0,0],"biases":[0.1763668341959146,-0.12648184509964788,-0.26366055277218803,0.32887833933935606],"weights":[[-0.09087819143987003,-0.1757675872069669,-0.2466268022766991,-0.0684223274111184],[0.22916986323929828,0.1399087234291053,0.14631500183507573,-0.39113733887815805],[0.1869618435050497,0.29899597172711834,-0.004842743731031093,0.3994946588211427],[0.09211686419465652,-0.28890047214433806,-0.2116150301765993,-0.37537917959223965],[-0.38081222337273646,-0.3717537917628575,0.16647892217027857,0.30862633971482806],[-0.026706807750356804,0.09471197406725171,0.28791993666496085,0.16599156037662227]]}]});